{
    "h_layers": 1,
    "layers": [
        9,
        12,
        3
    ],
    "size": 144,
    "weights": [
        -0.7600316796251538,
        2.3938347382169307,
        -4.3237791791010105,
        -5.180708073904616,
        -2.2336206765927624,
        3.1237944168690714,
        -4.404976659987145,
        -3.49586320086709,
        -3.594806063830666,
        0.509521337848768,
        -3.839932397907363,
        -3.589700937409804,
        -5.31005208152663,
        5.986678793652412,
        -0.9728877098741112,
        -2.4969360085219896,
        3.0487066745783284,
        -7.324776360580091,
        -6.3058501488538665,
        -0.30129833626697805,
        3.1425264602318608,
        2.731616356627654,
        -1.478078803557246,
        -7.114926397569215,
        -2.186287411479887,
        1.223472693186324,
        -0.8573755259256215,
        -6.409657325357841,
        -0.030519698338269285,
        -7.098478906805054,
        -2.590946546976547,
        5.563725881236338,
        -1.073656137560108,
        1.3864956206486978,
        -5.032392069785819,
        -1.450524253956246,
        0.4762972545257507,
        -4.025416066034456,
        -2.2771253256781576,
        1.2266480910169932,
        0.5572973809160047,
        -2.0106353684487357,
        8.893241209319088,
        0.2057606240937866,
        4.9151306620456126,
        4.328655187435983,
        4.434761755353955,
        2.677164172164045,
        5.96264380621159,
        -1.3097122690827845,
        0.23040473074357262,
        -6.498710731400766,
        -0.5436220912802279,
        1.01690929975933,
        2.922524914161352,
        0.5486222868850931,
        -2.212977329918294,
        -0.8702932878967573,
        -0.8867679319966593,
        -1.1946429685142248,
        0.7710716814937595,
        -0.19642049947988371,
        3.648797783909487,
        1.8733907795639582,
        2.8671990426132163,
        4.523957315890812,
        -7.517204464382189,
        -1.5492204436245405,
        -3.0040631511853615,
        -0.9849837818874256,
        -1.5712710931901155,
        -4.718169097676,
        1.5703555470456794,
        0.6740242716066634,
        5.427071909144951,
        -1.907883726513011,
        -1.2360959431743137,
        2.026799119846416,
        -0.3496119230827618,
        1.2743636423314022,
        1.7713150179251123,
        3.928968644186688,
        3.7443071262948844,
        -6.0274588380236835,
        -1.4658393793319817,
        -0.9617556430240136,
        -2.184058723047184,
        4.805378441107474,
        1.417637819761472,
        7.088809842131545,
        5.464637428729865,
        6.098806140769478,
        -1.5469593528588361,
        -4.539422707257344,
        4.486317440759384,
        3.701962270802831,
        -4.3024973631769745,
        -0.0487749508913049,
        -1.8544363812600935,
        1.264370137815138,
        -4.963817139402602,
        -1.1261053165731556,
        -2.8316147504850018,
        0.4745050151517316,
        10.524177384666595,
        -8.540571766341532,
        2.247130268931422,
        3.1721134184844537,
        -3.48040492318415,
        0.7287407585285979,
        2.6539631579224245,
        0.3636291091297722,
        -0.6166475988720324,
        0.2220575575056718,
        0.2646391332950388,
        -1.1988687890274372,
        -1.5349720957478614,
        -2.387666265028332,
        4.508415271411144,
        3.6844023911099173,
        -3.9900649671563464,
        -2.182641092654181,
        -5.14013186978908,
        0.791941597925438,
        -8.637387398568492,
        5.112709696153832,
        -0.5694591618300452,
        -0.7404843446411493,
        -2.88243137287925,
        8.390927295043667,
        -0.15458554333299757,
        2.8151639862512137,
        -3.1214259782880953,
        14.839367249623589,
        -3.5783975111384163,
        -1.0691842195427763,
        -1.5788436769606466,
        -0.5081824790178251,
        2.6302926862585245,
        -4.040953562748661,
        -2.3145918029726325,
        3.7632949843134567,
        1.5580138775493357,
        -1.5462420068013782
    ]
}