{
    "generation": 1,
    "h_layers": 1,
    "layers": [
        9,
        12,
        3
    ],
    "size": 144,
    "weights": [
        -2.494022686483123,
        -0.8550600393365132,
        0.6597708147657954,
        -0.6140543265136647,
        1.385412709813329,
        0.9979087722935406,
        0.6399779439185493,
        2.5415317862890006,
        -1.034120824827093,
        0.3437749098493763,
        -0.16573220003129485,
        -1.1746276833706886,
        0.9438074385955886,
        1.0532976569109176,
        0.38657256870522005,
        -1.4172165815448712,
        -0.8023863430676573,
        0.10630215170650537,
        1.4292662363387159,
        0.22060211958516804,
        1.642752154838812,
        -0.6120114462883672,
        0.1981191310917786,
        0.9051853417749893,
        -0.860690720292174,
        0.16826798133035212,
        0.1929430773622603,
        0.21512422608079496,
        0.35195726368046615,
        -0.26114753349869246,
        0.3122932131725098,
        0.7368031681750474,
        -0.8786714023278523,
        0.8142114391600848,
        0.5434634067736731,
        -1.4786106697402899,
        -1.6212774755323296,
        0.5943881942327915,
        0.04360748756358996,
        0.45806774177844306,
        -0.08187662701846138,
        2.6041988017834945,
        1.4959585750062834,
        -0.5940429618145908,
        0.07371352148815898,
        0.8415179229861469,
        0.7217187811528266,
        0.20620297602978258,
        -2.8294621176515813,
        -0.8228497507533217,
        -0.8751745701438375,
        -1.3752282130352957,
        -0.476062307175403,
        0.1991991987581761,
        0.6302711168526347,
        -1.0183005597009571,
        1.401415359058185,
        0.3218822765367432,
        0.8828414570906623,
        0.2999454302402453,
        0.0653880511251217,
        -0.21188206997303788,
        -2.105701446580536,
        -1.351225260421909,
        -1.708855798539141,
        -1.1114224366397933,
        -1.7208787820354878,
        2.6943527341908586,
        -0.17743906388025404,
        0.7078695902807014,
        -0.5811278818923657,
        -1.636708410266519,
        -0.2813674074999491,
        -0.7546788422702378,
        0.07009596310581018,
        0.4235387334129823,
        -0.47939869411765185,
        -0.23305306301660123,
        0.33338148465427025,
        0.02272681034318868,
        -0.5408746774381298,
        0.4254668730690167,
        -1.7879122422328018,
        -0.6729473735593465,
        0.563633417750977,
        0.30035485715710064,
        -1.7995099253168256,
        -0.5382822034472168,
        0.057106298265185096,
        0.9910499733900643,
        -1.1373359237318599,
        1.0981176662964607,
        1.2197197388407455,
        0.7696081841743169,
        -0.8389018501431422,
        -0.8649640567787734,
        -0.19347552635570475,
        -0.1435410251660049,
        0.45606226971007513,
        -0.2748843293004454,
        0.4530258236066477,
        -0.304253331341163,
        -1.2185123586980122,
        0.8312305332720623,
        -0.5413125822662822,
        -3.6903718059407624,
        -1.7750432084074572,
        0.45618406583899895,
        -0.32043514777255744,
        1.2796829737268909,
        -0.9823353144419029,
        -2.940430053986299,
        -1.1598856943002036,
        -0.6918147554753172,
        1.3659703084801844,
        -0.5882441199671901,
        -1.9372616767365336,
        -0.5892974709233489,
        1.3173217613881667,
        -1.4286881873039086,
        -1.4229980294132905,
        -1.1592358758976513,
        1.3665650901130109,
        0.43288609419929325,
        -1.5613911678139385,
        -2.0885917765034794,
        -1.463493479366771,
        0.7506795148511861,
        0.766177189509942,
        -1.576643565107617,
        1.4107332064725222,
        2.6246838404514494,
        -0.15042708053155995,
        1.2257552931405178,
        0.34836994859050946,
        0.6361345292165411,
        -0.556333996187454,
        0.9044034051393289,
        2.0126743438303714,
        1.0680002085020686,
        -0.7380384173826369,
        1.6045577922911654,
        0.2555376053593629,
        -1.9188777080899018
    ]
}