{
    "generation": 47,
    "h_layers": 1,
    "layers": [
        9,
        12,
        3
    ],
    "size": 144,
    "weights": [
        -0.09693057721867482,
        -2.5135588287389297,
        2.7105475320229653,
        -1.0471503453274769,
        -3.185506246900532,
        3.3712887048547353,
        3.6630749674867205,
        0.6192949726668382,
        -0.09277935133984805,
        0.5855547081482094,
        1.5702691176308576,
        -2.491356026960404,
        2.5767006368595324,
        -0.9136036381956086,
        -0.7303336364333449,
        -1.4887498511914217,
        -4.304041416782241,
        -1.9094066231016102,
        -0.9931713838356718,
        -2.4506394886211353,
        1.2940764554785273,
        -4.403904011477126,
        0.7313138845496032,
        4.543421758285883,
        1.5760045486510816,
        3.748333126296057,
        -4.712002804773313,
        3.6700565368259466,
        -4.677741631021071,
        -7.1020863198251405,
        -5.301768827378303,
        3.0848330643678192,
        3.480750128605205,
        0.6216884436278676,
        -2.526447120566084,
        0.011720334460330661,
        3.381135379941724,
        0.2073339339153193,
        -1.7933961326324814,
        -1.3303151196515461,
        -1.7433772178591653,
        -0.4228705632174987,
        -1.6162802191848455,
        -4.329907630684464,
        -0.014153109283109866,
        0.38607341275377893,
        0.7138327355056305,
        0.40732889271491146,
        -1.7245718452515444,
        -1.7818600931597302,
        1.677796898917372,
        -5.248243057188055,
        5.958705789465775,
        1.8239198699045736,
        -1.358620163054168,
        2.3049600000068735,
        -3.3784681763190485,
        -4.202618068187782,
        -1.4138217859717237,
        -3.7993532348686045,
        -1.1000477400661706,
        0.5321118075072995,
        4.843836479333137,
        -3.3106980688859187,
        1.715877687599622,
        0.8653456136652204,
        1.1621367362801158,
        3.8330510866140495,
        -3.1506711053152023,
        -0.05524504435138328,
        -0.47828467612235703,
        -0.123423943033388,
        -3.647626762054353,
        1.0084890166316496,
        -2.881330430801284,
        4.379068090549977,
        6.790686209509614,
        -2.5582045642993227,
        3.1081626055659655,
        1.8584661823605453,
        -2.120212947566653,
        3.36028207694481,
        0.05545431392148836,
        -2.387903846181211,
        -0.7816524385720965,
        2.93468298237217,
        -0.8690446732687271,
        -1.2566373401541873,
        0.7363529380844258,
        -7.444372472379324,
        -0.7934166202264934,
        -1.968412565514154,
        2.6429243304954397,
        5.315311930779872,
        1.9214637849706855,
        0.14139779450047962,
        -0.5732834732647218,
        3.532381076577459,
        -2.755286406350467,
        3.218324744175449,
        0.14338734693325061,
        -7.038651811765,
        0.6779554528848988,
        -7.005089086366463,
        1.0316165075493353,
        2.979848566178579,
        0.06072765416310788,
        1.9131566621337979,
        0.7996166007129842,
        5.5496995331551755,
        -4.183031278241347,
        -3.300037572198422,
        -3.810570948421679,
        1.8112825952363214,
        -3.3849074689540597,
        0.9229297746181164,
        6.093801362902735,
        3.34584479998253,
        2.847735234777088,
        -1.7245234506742553,
        -1.1508859769735906,
        -1.017912590179671,
        1.189381934145702,
        -1.4760246274388527,
        0.9666590806908737,
        3.876543185302179,
        -2.2535565803756126,
        -5.925862474728202,
        -2.2170167990788876,
        3.14398152404255,
        -1.8185408398003737,
        0.26821269448563395,
        2.641481814921358,
        -1.4483966305450924,
        -4.389161196441939,
        5.4238335373642474,
        5.9523621307407,
        -2.39252661521546,
        -1.5556451725590366,
        -2.0259859061106757,
        2.4331617571484605,
        -2.8183856590871526,
        0.940710667031678,
        -3.4465388758922395
    ]
}