{
    "generation": 40,
    "h_layers": 1,
    "layers": [
        9,
        12,
        3
    ],
    "size": 144,
    "weights": [
        -0.9550256037075393,
        0.9298514788367156,
        -1.733021176851648,
        -1.8695477284721402,
        0.5084529487880058,
        -0.8324807563677394,
        0.3721796453212925,
        -1.021323820638496,
        0.0317211684525166,
        -0.11181405863647453,
        2.3190886690726042,
        -3.359748018701672,
        5.763491239784025,
        -1.27032834736843,
        -2.6734498358527095,
        8.602965165263644,
        -0.9515900649489295,
        -1.7135344169647175,
        -0.9407986912433919,
        -0.42226337549669263,
        3.122741758571578,
        -0.009014235193565437,
        -5.447591898589852,
        3.9023424173882284,
        0.5770273088544051,
        -2.796356605629625,
        5.403350363071702,
        0.34803505759322517,
        7.6937053671009155,
        -1.661555105864522,
        -3.799088399056874,
        1.3850340741492564,
        -6.724587298473258,
        -4.905125030360609,
        -2.559693919580579,
        -2.2593504709623966,
        0.13358977953038784,
        -3.9720633153040645,
        -4.496463896016206,
        -0.1299199082643665,
        -1.3372889998801782,
        -0.9391249137638874,
        -3.279892077476547,
        -4.12909566948275,
        2.8678272791950645,
        1.9120912186122396,
        -3.446993641775711,
        -0.7189482074542484,
        -5.350646742671866,
        -1.799510968214629,
        -0.7907249655289839,
        3.0827024367174216,
        2.383294181221269,
        -0.8021520968213147,
        -2.558972251842832,
        5.130732027533463,
        -2.2624969332014717,
        1.8202492854727357,
        4.210937830884074,
        0.30220803311490996,
        -1.5583498729173424,
        4.181164206799135,
        1.0697175450246361,
        -0.40352174248938283,
        -1.1162673361720197,
        3.6709230395214676,
        1.6154728810475438,
        -0.5765168496183404,
        -1.387468365041671,
        3.320426512964117,
        6.72141808058492,
        -2.8394941168224217,
        -4.566100205852422,
        -2.226119978121823,
        0.4470543513116372,
        -2.4048727409575426,
        3.149613119316912,
        -1.5111725362210353,
        2.3444787093835244,
        3.8891181207592895,
        -0.6731328250470044,
        -0.5174357662945224,
        -0.45356892391856685,
        -1.6864998639255184,
        -2.9443221165551043,
        3.401744658312533,
        1.8855574231596115,
        -1.6518535292780128,
        2.4288487339768206,
        0.6667206850929882,
        -2.653384268606014,
        -0.7724564194635342,
        0.887353489257851,
        0.46289026007235434,
        5.708084131783937,
        -1.8151811858244131,
        1.6231980423420018,
        -0.11652186261142994,
        11.443721520537522,
        0.5374621977000164,
        -2.1193303304196993,
        -0.14887982165349717,
        -3.1128140765432644,
        -1.5690264674436534,
        1.061730739837908,
        2.0107508497566697,
        3.7195966982343647,
        1.3249781934679925,
        -7.672862182527527,
        -6.694432976705443,
        0.2203079128711527,
        -2.08127131086033,
        -4.2621234980062495,
        -2.3976899415608575,
        3.8683520900175368,
        -0.24521656776612755,
        -0.6276823962174761,
        -2.3847722265904485,
        0.4447613120049707,
        -0.19298271371574216,
        3.3965727915985955,
        -4.245481136403015,
        -5.005620855424636,
        -1.1168743812203932,
        2.241353878915675,
        1.067302904700168,
        -1.8173197257939144,
        -0.8324612453723522,
        -1.5611586263425525,
        4.866057703170215,
        0.8544279120698929,
        -0.377941891217608,
        1.303679986084169,
        3.558660395349351,
        -0.4722405971177466,
        -2.7957039222628004,
        4.930839029432829,
        -0.7771727777621606,
        -1.321062795919421,
        -4.749388444840967,
        6.071294510586179,
        1.0695540349311456,
        1.3472280689264435,
        -4.423071768470994
    ]
}